weight_index,fold1,fold2,fold3,fold4,fold5
0,0.7311554132848985,1.4821775859916186,0.12209071236432581,1.8070924354956752,1.6261254826649019
1,0.2278130876765836,0.6064127741882336,-0.05569816424468231,0.35949350480291176,-0.2157902557441419
2,-0.020156046087122615,-0.018989408028772446,0.01805803011647529,-0.028308119808801484,-0.05001724876989685
3,0.21828078289452382,0.15676621139631597,0.19428890426691386,0.22716209057234066,0.13417522390460762
4,-0.05428183453567687,-0.05683055700540098,-0.03645966583722998,0.03474031902948115,-0.16298720814936074
5,-0.012345461373030315,-0.01205564207513072,-0.009805806660432995,-0.030050757029175916,-0.0818816273874661
6,0.059613599835069385,0.0743532393773234,0.019565294687979972,0.09492079907973458,0.02613319836573738
7,0.12341404640729871,0.05248591835582308,0.11963882406635878,0.12460716820166198,0.11725038834264366
8,-0.2930545769537845,-0.20538611100710089,-0.25959320100899075,-0.2356124529613076,-0.20705766474779153
9,-0.05863314167074812,-0.07684494642881524,-0.15535209646282494,-0.16268979943877926,-0.22643852827537672
10,0.13161400461776127,0.002394724314733849,0.026860982413105132,0.05964344147123386,0.059769128032071496
11,-0.052506662441030715,-0.7083435743680556,-0.16499799910133345,-0.3627484849100311,-0.04459659473456443
12,0.04073619398246841,0.05594009385204555,0.04361822442662932,0.05251369906371087,0.04137537387093816
13,-0.149583741360484,-0.25603491884026747,-0.12291514257736724,-0.20140827799829894,-0.2826499689616924
14,-0.19214769356854916,-0.18758779288721283,-0.19733449573822975,-0.2145128271133103,-0.1631024693003916
15,0.055592742724293744,0.05240759163193577,0.045302797056144956,0.04322130159838678,0.04229110791084147
16,-0.15045928753714619,-0.1754937256438832,-0.21917308038208685,-0.20028716689165335,-0.15107933744367322
17,0.01998251370394684,0.14074104658663641,0.11717500842216579,0.06828717294449603,0.0991814102144508
18,0.03359631473001301,-0.047558770954356226,0.03297985962432589,0.034322741838151316,-0.013490516521803327
19,-0.08786957431114745,-0.0681761598480946,-0.09769769520524386,-0.09949979002269023,-0.12756588233331545
20,0.2536538948293054,0.4022636319980435,0.2155503354751233,0.2855959571522008,0.3834363005501308
21,0.374350632311989,0.005844966948743836,0.11661336411641134,0.010865896048834188,0.17923128567401597
22,-0.6033220128680993,-0.2513363284843979,-0.3638074517058007,-0.2614860135357308,-0.4926968707761612
23,-0.052075289705343544,-0.017556874254196254,-0.03837962919497472,-0.026525220567514947,-0.046131987817107506
24,-0.04894690709202721,-0.04834790251635276,-0.02660320055677713,-0.023015518194164815,-0.030813218933770235
25,0.020391593033894238,0.020634487960055098,0.03710845280512097,0.007152295242308585,0.0176613306305074
26,0.03409308512894997,0.04600736281668618,0.028123593425997247,0.052103761710157556,0.060290356797511456
27,0.03193957847441222,0.039061075790385515,0.024397631692349205,0.04083506918761792,0.021981316740403347
28,0.07620882509697177,0.03451132591903077,0.1521642633427131,0.00822170664273179,0.1429841330729308
29,-0.1353703629408157,-0.14957958548652472,-0.20507086958352053,-0.17351792010537276,-0.19947603646093362
30,-0.18120222941410752,-0.09507408446798954,-0.08358495782892798,-0.11585326599617146,-0.11879113696118979
31,0.20535667623999565,0.045108900403346315,-0.005555178922510308,0.09508574319485624,0.08399169339119142
32,0.06098873398561406,-0.025465111707862805,0.06087151373889814,0.13129775553683684,0.07787228967804014
33,0.0006967011793376359,-0.018540478818905352,0.01901859431870049,0.013266125380538587,0.019393211883249297
34,0.3106692782937313,0.24301904823661943,0.2902573045593571,0.2199765964648415,0.2044333169352044
35,-0.08606505657968881,-0.047229849217008416,-0.06848379543341075,-0.06878826069012516,-0.03658305706984937
36,-0.06029416372585841,0.00864421332780704,-0.001522876994255073,-0.019054837087639106,-0.033094650564062876
37,0.0888327326958617,0.045225501736704664,0.09571653385662947,0.07867566885324408,0.007085240167208327
38,0.20834351551112193,0.12413261657530089,0.12048887020553678,0.025801672655748654,0.07629164587730287
39,0.5853779092075806,0.25734231155901893,0.3736806718431886,0.37789083178824023,0.5570835359314025
40,0.2259965297170836,0.20764311703234242,0.23707954966990658,0.23593080841751204,0.2427558934467304
41,0.23585946832779991,-0.055996947298364415,0.06358439016287633,0.05731315883978075,0.36480697392910477
42,-0.741925823651169,-0.12092249928827652,-0.44407123919878394,-0.4135239355899097,-0.8699157940938984
43,-0.08332995715529268,-0.1271307785387724,-0.08982161696069772,-0.06837590460636091,-0.12362250278239843
44,0.13974367972345217,-0.01429203424398231,0.06610399330366305,-0.16490287881004398,0.14911223530267137
45,-0.38905634573030057,-0.21346118013145984,-0.44101605738653343,-0.17852675623352385,-0.4731691461945091
46,-0.0337072172173422,-0.09519567167543566,-0.02755255075368487,0.028667039367841984,-0.031822528694231376
47,-0.019925281241491274,0.0126137030387435,0.0315764747196337,-0.04560213344580939,-0.005919682240552187
48,0.0347767280264343,0.07256489683038998,0.06521899515626742,0.06818391495964916,0.06723595804703258
49,-0.17764234117579664,-0.19703935676495526,-0.20140460503204902,-0.1606494028580849,-0.19022232459623534
50,-0.11449879003626307,-0.0902445358880051,-0.1619747068388364,-0.05413649970304484,-0.10942654673531296
51,0.13757463223543603,0.1577236520705515,0.09867497697570768,0.10415813286379273,0.09477876838851766
52,-0.2949309370441439,-0.10156338916573392,-0.078842851851694,-0.2778808002410342,-0.16371140750950244
53,0.005236264421100541,0.029645012187876456,0.02267631556647528,0.030558418794417237,0.033287004680397456
54,0.007963772730961358,-0.005900066496048975,0.05603112804737818,0.022182083800642148,0.041763282354559214
55,-0.08143481112519414,-0.0193397472320181,-0.08178117995543918,-0.10349259604443398,-0.09761546252151261
56,0.032063701865261744,0.04703346995785696,0.046545831630094604,0.058339442769978586,0.05428235372161857
57,-0.10117529091502198,-0.042463652867311436,-0.06548615806865167,-0.03026549768993833,0.008389419671698766
58,0.05382741456387349,-0.17249069938157544,-0.10765596834292714,-0.24212986176492526,-0.2709545283285134
59,0.34245308073536235,0.37745769348197367,0.3735475792460988,0.47688073126635366,0.5053338799880908
60,-0.22540531053569873,-0.21733519888411482,-0.28204979683545234,-0.1289437794188531,-0.24696873604189631
61,-0.04808643361423607,0.022620803568518862,-0.08328971334675299,-0.02502404079833349,-0.052458677957599745
62,-0.2391710353123857,-0.1388419644631357,-0.1428618100880483,-0.20806467504038687,-0.1748928326279543
63,-0.026304197012959177,-0.13565773355340435,0.10140676732673289,0.011553091450281123,-0.05234328708497982
64,-0.13662286149337588,0.0171836831455941,-0.2908252960500213,-0.19052448157309854,-0.0987172040048662
65,0.4095000331146892,0.668704452504773,0.49679020708107213,0.8321150150886639,0.7370873663538762
66,0.06272873847656148,-0.1760065240441176,-0.07259060350187183,-0.2301749283424788,-0.11068786533243456
67,-0.17706097902390924,-0.27477470565797907,-0.21114031566821062,-0.27350814507809396,-0.29348536332226266
68,-0.6383438671391932,-0.552546405449732,-0.5674089486839,-0.5266501781091355,-0.8801377653455522
69,0.1985827566297545,0.2423246074360917,0.25528013900421037,0.18017540041061497,0.15739947372776084
70,0.1276048242479155,0.04406909822127724,0.11248073643728704,0.10952059804148186,0.10880175862111423
71,0.052491987325214054,0.022946296101564744,0.030064395149880623,0.02426949179195648,0.018628329625215156
72,0.008307362558577891,0.18210364907836546,0.19234751098888495,0.13722668507064678,0.23235078422109082
73,-0.06648277264937444,-0.03930208813805859,-0.040008792129733746,-0.07241343665888586,-0.023287461402059752
74,0.5380629247656222,0.4209618675153588,0.46476176810687797,0.3645583839152496,0.7384041992949095
75,0.04121162781759592,0.0731827762019893,0.036972938561478964,0.052693093993804535,0.047919723417460335
76,-0.08765439533514177,-0.05040384144683283,-0.08362377241696668,-0.08122660131056489,-0.08130858087613416
77,-0.0318147482462457,-0.01977971642100081,-0.020359425244930045,-0.006769443535782542,-0.020203853302634966
78,0.016829575805310536,0.009671959863934517,0.012924442935091957,-0.01087735447250354,0.02266764786314653
79,-0.02046742491389268,-0.006642282464772435,-0.015489463973931012,-0.027101958855621246,-0.0071976987543042985
80,-0.3993385727656285,-0.20248071806390439,-0.2696443215298968,-0.26046011120713897,-0.3898896673841509
81,0.37126708368242717,0.053668300857848676,0.20877500104477273,0.12911207250913076,0.32917872743966353
82,-0.07438812723271541,0.05089795958902692,0.00867800527279041,0.09358764027151396,0.003312584263914125
83,-0.2478946750258211,-0.20162119159151298,-0.23205364566524503,-0.23132775517669618,-0.21325454339668007
84,-0.002924191106879857,-0.1348285078558623,-0.030010972846774155,-0.015275894535080325,0.014087975666364388
85,-0.05774716534086005,-0.018997917749983124,-0.08941555598808429,-0.08076993230126989,0.013039503052435326
86,0.32037134368624665,0.418776386841316,0.3933174867587521,0.38299489816454063,0.24468254138233364
87,0.05932434601908573,0.03663697409303804,0.05094031500711375,0.021710355129998686,0.036091128438085686
88,-0.02048014411385105,-0.02710907514004966,-0.07414915671177529,-0.06966251497647986,-0.05376821317477254
89,-0.0823038004224666,-0.07381354813515514,-0.0857256920234779,-0.0830763814138178,-0.09085943792859803
90,0.06550832650609799,0.06483701356158898,0.09634254102801747,0.16151722230704918,0.11565076276991886
91,0.17142901212079492,0.1801760290770734,0.17341293233846236,0.14088580895024724,0.18610687740125625
92,0.135319936509963,0.20058986061073353,0.14425084382513495,0.1368481565427353,0.12774631497858213
93,-0.009397186639273044,0.027089942914248672,-0.010358972538940185,0.015024910416229276,0.012267647931518437
94,-0.022879867345166935,-0.050082540155602,-0.04377244676338606,0.04200714597666011,-0.03327614655115868
95,0.031212748132764416,0.047502322602472696,0.03280683551171318,0.0012669251502437468,0.002255934324516707
96,0.023528534850509514,-4.6788584102572164e-05,0.036474225143012275,-0.013277718114656901,0.037533590455727996
97,-0.49507683406767605,-1.185195096189549,0.28050937512687274,-1.6163319953885602,-0.5008464770804215
98,1351.1457470062664,-22.279808393473512,-26.60515902599364,-15.096663676710065,-20.813198235931097
99,-0.16329075979245403,-0.9566399938934703,0.5718781410445475,-1.2163506768679966,-0.7218589717716907
100,0.8363735479155766,0.4345219306615328,0.7785495959998988,-0.3980136798873283,0.6704236819448784
101,-0.25818093324625735,-0.29972321930057544,-0.37843615262371777,-0.330391301865069,-0.17494843790180292
102,-0.031070357398718034,-0.018381738480944553,-0.08108165841640884,0.12789986139704596,0.05392529273698575
103,0.18624689823967508,0.18058089144934708,0.2083987752792208,0.11744846130247984,0.11081029120298688
104,-1351.529852738363,22.12813524786917,26.268486015737395,15.925642251585975,20.25782726918662
105,-0.036157853517911315,-0.10697733627013166,-0.08456136766816158,-0.04399635019700827,-0.04565548592938248
106,-0.1635032711990667,-0.03175525782836458,-0.067959796763632,-0.08852016927239524,-0.09680586247576556
107,0.07340492813793835,-0.10437550106950452,0.0443877580596817,0.07177896851010603,0.08049681475929647
108,0.09315323648462365,-0.04244670949646371,0.059852421397961104,0.17392630711270765,0.06854292064858175
109,0.08979879486342926,0.015920155938593254,0.06990007040591337,0.12037372853321121,0.08162202091910553
110,-0.17119748452573413,0.0735297245943874,-0.08911681657035449,-0.19507389904535014,-0.18823483685003226
111,-0.45657830415864903,-0.17617062152070978,-0.30109769058268115,-0.23137427433219415,-0.4125218558491518
112,0.010159864547976637,-0.041415074577322415,-0.010660538619548791,-0.0587781973262357,0.0022218049881730646
113,-0.005978187808195282,-0.041889967316820785,-0.020533268915885035,-0.04120683916768071,-0.005681589379583301
114,-0.033845156878375714,0.002837386664019948,0.07674334802331685,0.02789930333260065,0.055769844169183964
115,-0.01663430382720305,-0.014748698360858523,-0.012508747808455593,-0.0004101444563973637,0.0072107802250888555
116,-0.05947924840630147,-0.03481088804353637,-0.0295625772692734,-0.05018855711515221,-0.03820038626325877
117,0.07667340752614264,0.10002634563920852,0.06746450028130142,0.10602895584123849,0.05430514467105561
118,0.8096866657154175,0.6737495610001031,0.8037680144359178,0.857978723968983,0.3003081994739646
119,-0.11746058195848512,-0.06553565298501127,-0.038912931862057014,-0.01977026917632803,-0.1326365494559189
120,0.04498503586386903,0.04053125863646041,0.04351223257759174,0.03950619410989694,0.01617814603518217
121,-0.01172604381605625,0.042601866116825114,0.034276315345155225,0.034061150361229586,0.04897511633001356
122,-0.32409663647360415,-0.2092086244589105,-0.3704524263618096,-0.4567719799021377,-0.1627946494337885
